-251
-102
-188
24
-188
-225
224
-33
-224
-93
105
143
229
181
133
-203
11
45
204
82
38
81
-13
-82
39
-185
222
-100
116
13
-168
121
167
-100
-112
235
-68
-144
-54
-37
19
-205
-149
-9
232
240
45
-13
28
-7
-188
-189
-183
55
-15
112
126
-49
-243
-14
219
-155
-149
130
1
-5
109
189
107
-201
-104
-130
-149
3
117
-173
-14
-94
70
-241
155
138
-175
228
-62
66
85
-192
-239
97
50
236
198
157
110
-57
-103
-36
-124
-252
19
28
-126
126
-225
248
209
17
-102
22
32
-203
-96
113
-231
98
-77
110
162
-60
-49
-44
-81
-107
-143
-226
93
10
-7
225
14
-244
-3
144
138
28
136
91
-211
-222
-143
76
-170
17
-67
-145
-141
112
221
-235
-204
-84
-23
-29
66
91
1
-98
-156
250
-129
115
-250
124
3
144
-104
-117
-21
-59
-84
92
-239
2
-147
-50
114
-32
-194
79
-10
-142
251
223
85
61
58
-170
219
158
-176
-166
17
-170
215
-237
231
-145
-98
-47
51
74
-211
68
-180
-102
-238
190
122
-176
13
-144
-62
8
-177
-233
-187
137
-147
-223
39
-67
-133
-201
19
-174
-182
-6
-64
-24
203
244
-206
248
55
-129
-110
73
-195
-243
153
74
-131
-165
-173
-52
-142
-104
-172
-33
-71
123
156
52
178
-80
134
253
170
-186
-27
117
-198
23
109
113
150
255
-70
211
-244
-173
30
-120
-82
112
84
32
-247
168
255
-63
35
156
245
-43
-181
122
-46
245
192
183
106
250
-50
-41
107
-156
-42
-219
-201
-30
-135
85
106
39
-59
-66
-185
-50
-154
-185
143
137
226
132
-162
-210
-1
48
-222
-65
-25
140
-71
180
-158
-220
-232
56
-183
-176
-230
-62
164
132
233
-150
-190
-208
56
-88
-137
-57
-206
-167
-181
-112
-121
74
192
-87
-247
-89
-203
-62
-165
-105
-26
-141
208
47
-61
233
241
-153
109
218
-47
175
-245
-247
-169
-126
-48
-119
-37
27
25
98
-156
-39
-245
-147
128
-192
47
219
-41
-235
-178
-90
68
17
-112
54
120
253
16
-183
172
27
-174
-252
156
34
-115
-137
-196
166
216
-95
-129
227
14
255
-221
-195
217
-6
-174
-217
160
150
56
-208
-52
-80
-211
220
-7
217
-10
75
221
-110
-147
-150
9
-87
-240
-30
74
-113
-59
-168
-114
-24
-107
-153
225
-25
-114
129
-130
198
177
74
-138
222
38
112
183
-228
-69
149
-81
40
255
184
209
-241
-102
27
-97
94
115
45
-186
-248
148
-217
-16
-221
168
109
233
89
-73
-161
55
221
207
-17
249
-118
-124
-89
177
-125
-161
130
-110
-7
-99
49
-169
-240
-162
-99
-232
242
-59
8
-235
-147
-139
254
199
44
-163
-2
9
-212
237
2
-75
-143
169
-154
-13
-248
232
134
1
-123
-73
88
-107
21
246
-83
7
-70
181
27
39
-214
25
-18
86
118
236
-161
162
217
97
-169
-183
10
-67
61
19
-91
-62
-236
42
121
108
191
-114
98
-148
149
-228
-223
-80
67
-181
201
-207
162
63
-227
-255
-31
246
98
55
-193
-147
245
124
127
-102
-194
147
196
184
-1
131
-186
-160
240
219
-132
-239
-117
191
-164
-172
240
253
147
-243
254
-140
-253
97
171
-190
205
160
190
76
-198
252
-33
254
180
222
129
249
-193
113
212
-69
130
-161
-134
221
-77
-149
219
-186
-136
217
-70
-133
58
-155
-67
7
-251
-133
-173
-193
-137
51
-195
-213
17
190
-220
79
48
248
-246
-79
-169
-124
-113
10
-17
-151
80
103
-190
-245
226
124
-144
-96
-125
-139
27
-42
-76
146
-247
-15
189
25
-80
226
-151
223
218
-141
-112
-207
-9
31
59
230
136
-116
77
202
-106
48
70
6
208
201
123
-21
-97
-209
-131
-88
32
-197
193
208
-227
-214
175
247
-99
-193
-216
148
94
99
122
-26
238
-56
-80
-123
247
247
139
199
191
6
-78
-162
53
47
6
-170
106
-57
-218
134
-16
213
125
141
-236
165
33
114
7
-101
-168
-10
99
8
122
90
-1
5
33
-66
-245
211
29
64
2
-222
150
-148
-23
188
243
217
144
111
103
164
20
-120
22
-229
35
111
17
-122
-137
-117
224
118
144
2
-204
155
-43
81
-37
215
115
-143
-188
-164
-211
-202
-202
189
166
156
97
-70
-220
-136
-43
71
230
230
205
-162
-143
173
212
-254
-82
-248
157
131
89
-136
91
-52
-23
158
41
22
213
94
-45
122
-5
-203
-204
31
-84
9
-154
-109
-17
-206
-16
96
223
-60
98
-115
-52
-1
-239
-219
119
108
-15
-159
10
-230
119
-33
120
-182
-167
-141
-130
-115
146
43
149
247
190
-124
-215
-82
229
-248
114
71
-106
-194
-186
-89
-157
189
-238
85
-226
28
111
149
251
-25
222
-173
90
-163
-32
-20
136
-138
-29
70
-6
12
244
-33
21
102
-219
171
164
-149
-175
-249
-216
-157
92
-186
128
-53
219
122
177
185
206
11
-234
-82
247
158
35
-38
-28
-227
231
-40
-4
-5
-194
34
-90
226
141
-9
233
181
91
69
252
-38
-240
214
-171
193
144
-222
-52
166
-48
-60
68
243
158
-217
-239
132
-1
13
-128
61
-209
38
30
187
-227
7
113
120
-180
108
-174
-164
67
-89
-227
-46
-55
-23
-136
153
173
188
141
75
227
158
-49
-30
-85
79
-225
-39
-140
61
-107
-111
-188
-250
-247
-111
114
-164
-19
-75
3
10
135
204
243
255
101
160
187
-14
-21
158
-112
186
-128
59
8
-97
-236
124
220
-87
-242
-224
-81
-233
-79
-223
-141
158
-42
118
-89
-163
66
-102
-164
-89
-198
-233
154
37
181
-214
-34
-203
101
230
-44
121
99
-80
-221
113
-47
-46
136
130
-13
251
32
200
113
199
-219
-77
-159
-127
90
-100
-104
-12
192
-178
30
-97
-125
-125
-123
87
252
232
-248
-225
89
-39
-16
-31
-165
227
-36
122
171
-180
65
208
-1
163
-174
-167
-194
-22
77
255
56
-150
-98
187
-19
35
18
-23
11
26
7
-157
242
247
68
-179
218
-224
199
133
-148
9
85
107
-85
167
196
-22
-110
17
-23
201
123
135
132
-153
-87
-106
80
180
176
-169
-233
162
-177
91
239
-215
123
183
174
231
-65
4
83
107
-85
23
-171
60
-217
62
6
162
-60
-118
-246
109
32
90
33
-49
177
57
-142
256
-108
-159
-215
-240
-232
215
247
-41
-38
74
-191
133
-159
-106
-63
-120
212
199
-214
-104
-175
-204
-251
112
142
39
-192
63
-161
-78
63
-12
19
104
3
42
62
-6
-255
-231
-188
-190
158
-91
-40
-161
45
-84
-218
87
68
-137
139
73
231
25
-144
-217
-168
-49
-39
151
195
235
-2
-58
21
-195
193
22
-170
-251
89
243
-86
-207
-173
215
-35
-135
46
-223
-16
-71
106
-40
210
217
-1
-214
-88
215
193
-149
195
-65
49
-40
-4
-14
238
81
-9
71
69
161
119
152
119
-172
-239
-91
-139
1
94
223
217
48
184
-40
90
-160
-81
27
-53
-143
218
252
73
-43
-17
55
-217
229
-130
107
134
245
3
-3
-182
20
162
-65
-235
0
-99
237
-208
-171
-59
138
-75
116
-91
128
229
-130
125
46
84
-149
-154
122
-175
-28
-27
215
-39
232
-44
35
-4
-138
226
16
118
-129
-2
166
-44
195
48
138
54
213
10
28
-172
-121
-182
167
-14
-80
33
67
148
-249
25
-147
239
237
144
-22
-157
114
251
217
241
-8
127
-59
-69
-80
-177
242
-123
89
13
-40
223
87
-129
-47
-249
161
-236
155
168
46
-248
150
27
152
-127
126
10
-132
87
-6
116
-42
192
-209
134
-242
-223
-245
103
46
-29
70
-123
99
-232
-115
4
-212
-216
-85
89
-208
-190
-140
200
-61
242
-46
62
73
204
-78
-224
140
-30
166
154
2
177
1
-208
-108
-185
-74
247
-161
67
-6
-117
107
165
228
155
231
-168
99
-87
-181
-203
232
148
-255
-102
180
141
124
90
39
-130
10
-216
-81
158
-144
100
149
-49
-89
-113
89
-239
-204
62
172
-229
150
15
-60
225
68
-84
117
69
70
40
-46
-62
-126
249
64
140
-223
239
43
-111
83
-65
95
250
78
-71
-245
130
246
183
157
141
-58
-158
109
-246
14
-30
79
-172
-246
-224
22
-116
-231
-170
-232
-198
-188
67
-53
151
-254
-214
145
81
-29
156
-45
-38
83
-144
-154
-231
-46
211
-221
224
-75
114
-205
-65
146
73
75
171
159
100
230
227
-89
-79
123
-87
-37
12
249
190
-88
-51
-104
251
61
-2
-236
-241
-47
-201
239
134
169
-222
-186
59
107
145
-26
10
-11
-53
-18
155
124
-152
-188
-169
116
-194
-235
-228
10
-83
-233
-185
170
-213
-170
-133
-157
-187
-254
-245
-153
-185
70
210
216
-212
-35
-51
-9
202
-152
-141
-205
-83
-54
167
-22
-33
195
245
140
219
-196
55
-250
-110
178
-151
-41
180
-140
62
251
186
17
211
229
237
-96
-36
184
9
80
234
181
-230
145
-96
-7
85
-108
-122
47
-48
188
53
98
110
158
-199
34
-239
119
29
203
-120
-16
176
-139
144
-116
-211
-103
220
-233
-178
246
169
-18
-17
-3
130
117
-212
-174
49
98
180
-97
-1
237
193
17
100
-34
-36
236
206
-116
-159
94
24
-114
247
-12
-91
-186
-21
-178
52
218
75
-74
79
119
8
-128
-39
-68
31
216
-86
-32
-23
-242
190
197
250
140
-175
-165
-22
105
-23
-30
-162
142
39
72
220
-165
34
39
17
-142
-98
-230
-14
119
-42
-239
80
128
-14
-199
142
-80
254
136
-196
-177
227
38
184
-52
-248
-234
-166
47
94
-201
139
-127
93
-100
-13
252
-74
228
115
140
246
-61
12
-25
-4
-102
151
-6
-222
211
73
-251
-6
1
-47
1
24
44
-207
-138
98
187
-9
-64
-168
233
-69
14
206
-209
-102
196
-14
166
-85
238
-192
-190
-24
-158
-234
-207
-153
15
51
56
-239
-182
-157
-190
-64
197
253
183
-123
-171
161
64
98
110
111
252
50
-159
162
221
-178
226
-225
54
-188
-203
103
-85
69
-102
227
85
-28
-186
151
164
-245
148
91
-112
233
-4
209
75
-150
64
71
156
160
-23
121
239
-53
153
37
15
206
-116
186
19
38
157
-152
-246
227
255
174
238
147
9
-129
124
-251
-177
-57
-145
143
-242
-244
47
-9
133
30
195
30
-189
-46
-20
-49
-116
255
245
-215
-153
255
-244
-154
173
250
250
-74
-135
117
-69
-55
-196
43
-168
-182
54
135
66
-68
-91
4
218
-24
214
-58
183
-157
-59
171
-116
44
170
-104
147
87
-110
140
-243
12
2
-56
212
62
242
-212
137
41
179
-54
228
-168
207
190
64
165
-124
-9
-248
73
-93
-108
-138
-179
44
-247
163
190
149
176
-54
-105
-136
-98
213
-150
-54
94
147
-131
-216
119
-43
246
53
-234
156
186
13
164
3
175
-200
121
252
100
129
159
34
22
79
236
173
199
-118
130
-206
84
-33
197
209
7
60
-90
-2
-142
-68
-103
-213
200
-195
46
120
-140
-89
115
216
-216
19
-6
62
-158
-26
-21
-215
112
-147
-165
-60
76
-225
-107
-172
91
59
81
205
247
234
248
191
-217
38
55
-100
205
-86
-140
245
189
110
52
-225
-172
-225
-184
196
-116
-93
-120
216
-62
29
-212
-226
-168
125
235
-177
103
227
-242
143
9
69
-214
-41
240
-98
-52
173
-244
255
204
-160
-226
-236
-221
-86
-73
-85
-126
121
200
-82
150
-224
-213
129
-145
146
100
-130
32
-146
195
75
68
179
233
-240
95
244
-241
43
-172
-211
63
-137
-41
245
35
89
110
-21
-249
5
11
-206
-122
122
195
234
248
-28
-168
187
-210
156
109
-233
171
-51
-245
187
248
-161
232
54
-42
-65
44
249
-231
-102
-29
-224
159
238
-175
-220
105
-235
-242
96
-8
-154
27
39
-254
-120
61
173
85
73
104
77
167
80
-125
-131
-241
175
-138
-217
-183
89
-185
232
72
-104
-244
-80
-83
-229
-239
165
-127
44
-52
-126
180
-247
-209
10
82
151
-169
-7
-25
-38
119
-10
-119
237
29
-46
70
100
-70
-114
252
-58
62
-87
-31
79
-178
98
-133
26
228
-208
35
-237
57
-139
170
144
110
-111
-150
-28
135
-13
-47
-93
197
-233
-248
-129
-91
-252
69
227
-83
-218
50
-5
136
173
-235
108
221
56
127
22
172
41
-90
26
186
16
254
65
-254
-49
228
199
-26
236
-186
139
240
140
110
-100
178
-96
151
58
-179
172
-91
-214
-28
-220
64
-112
78
230
170
8
-11
169
-183
-8
-136
-211
-65
94
-231
5
-23
-247
-111
-170
-91
-190
-10
-196
124
67
232
-223
109
-52
-186
-84
92
148
-110
6
-100
136
-81
-27
-129
39
18
62
-123
43
-189
109
52
-44
196
216
22
-70
-235
-110
252
253
-77
105
-55
-7
-234
-219
-115
-88
43
41
-209
218
-242
-82
1
32
236
134
-181
-209
-13
126
3
-73
87
-231
112
107
-85
109
104
94
-42
-208
-169
-21
-171
-28
147
129
-243
195
91
-229
-143
-164
58
-163
226
133
-115
-43
3
143
140
-166
168
-4
197
-173
-152
45
177
62
93
-248
-215
179
-20
189
51
-6
127
-114
21
240
-22
-177
-179
-52
212
-38
161
-41
-151
45
49
-239
-215
-10
-156
-111
-221
-235
207
128
-227
248
50
9
181
-154
-253
52
-12
24
36
222
103
113
-86
59
-181
-181
-238
-76
119
67
-59
160
-199
41
-207
-164
62
256
220
91
248
14
-156
173
116
-153
-31
-153
127
-251
-187
-26
118
-17
-224
193
57
-206
-139
-79
118
58
-175
175
-157
-126
-245
161
-126
231
-4
-134
-11
96
-217
-151
200
8
-48
71
13
21
-212
-125
-252
-180
-187
61
-129
-70
238
244
244
-193
163
-168
-63
174
249
67
149
-11
189
-118
-170
228
-13
-227
-20
195
100
249
-40
144
-131
-36
220
-63
-230
-165
123
-248
-176
111
-184
243
199
9
161
192
-181
54
-75
-248
192
11
236
-77
40
-40
-138
-116
-47
79
-228
78
-213
248
-241
-187
-172
139
-179
-93
-6
-107
-106
-63
157
-201
-127
233
109
55
241
45
-191
221
224
106
-75
-170
246
134
165
-238
-44
208
-246
-28
-235
-162
-145
-158
1
105
-9
150
-214
-108
205
-85
-131
58
226
-146
-153
-221
-181
-185
141
0
-99
130
-122
-190
148
90
-238
158
-194
-217
252
-83
-119
-4
-235
127
-110
-193
-237
-160
-22
-112
154
-52
-3
-255
-16
72
-184
-132
-184
-27
255
-50
39
147
-216
57
49
-154
96
44
19
233
-216
40
105
-69
103
124
27
-174
-244
-76
30
9
-75
-242
-175
-3
-118
-104
226
-119
102
10
-228
142
-189
76
244
163
-135
7
140
-95
-209
-11
92
150
-144
-137
232
-132
43
6
133
224
20
214
-34
158
-146
-64
-217
212
202
-189
98
-244
143
86
175
-248
-163
60
-87
-116
-208
-251
-222
-95
-133
-246
29
166
17
-94
134
-219
-136
-156
195
-26
36
234
-69
-18
-212
-227
-6
187
115
-87
195
208
229
-148
-164
-235
-143
-130
-74
-20
-119
211
-110
153
-139
-232
190
-19
-132
129
212
160
107
-114
-114
151
-84
136
82
-225
-207
22
239
-234
129
-181
-212
242
-54
-30
-34
82
-75
112
-21
42
136
-87
-233
-251
-214
235
165
149
-135
-205
44
37
187
-129
68
236
148
51
-254
22
127
-210
8
-184
16
229
155
197
85
-122
-17
-35
47
6
-30
90
-15
-121
-17
107
-70
-229
-113
-140
-102
211
-160
-210
7
-157
68
-123
-111
-181
-50
161
-207
-152
102
133
-18
-171
-157
-226
91
68
119
-180
203
-154
183
-124
-127
-186
-7
27
-230
89
73
32
188
-115
166
-180
-40
-141
237
8
-36
83
-114
202
167
-16
231
3
-203
95
79
255
197
6
-124
-186
77
124
97
102
-43
-86
-121
-111
54
-212
-35
-242
-96
-54
23
123
-227
165
69
197
-107
44
-57
-54
-117
-234
-55
-177
28
77
-107
-151
-55
246
207
159
-97
-170
-208
214
-126
13
228
34
216
-5
-99
245
-96
226
185
53
14
-127
254
152
-105
-56
232
179
-235
-131
-228
-34
-142
235
-131
18
-191
-83
-24
-61
187
-52
229
147
199
-126
135
-153
-156
65
155
114
194
154
10
-167
-159
-14
-244
-138
110
-216
84
225
-237
209
-13
-171
-129
218
24
-199
-90
-3
204
-147
127
83
-44
227
-108
-145
84
-170
-247
-162
-82
-149
80
-70
-31
-66
-30
-203
-97
-11
-250
146
74
-123
108
-158
-66
-237
95
-118
-128
-34
221
84
-63
-143
195
-235
-57
204
-141
117
-201
195
-209
23
-126
17
76
33
-250
83
-77
80
216
-225
178
-106
-206
17
32
-78
239
-3
-250
-80
110
201
-59
-203
149
57
170
204
-4
217
-29
126
-22
-208
-97
-16
131
81
-192
91
112
243
241
162
4
17
-172
-12
-242
-167
164
124
-222
-151
176
183
162
90
131
-98
51
-154
-228
-228
-106
-70
12
-231
-244
77
115
124
64
100
30
-188
-140
114
55
-126
204
-37
253
238
68
174
165
-26
8
40
131
-197
142
159
-169
-220
-167
100
-196
-155
-80
175
225
240
19
-1
-204
136
-142
107
-247
-195
-186
-249
-213
138
181
208
-144
-68
-9
244
-9
-123
146
78
-87
236
-78
-27
-175
98
-107
-206
82
168
49
134
47
163
-15
57
224
55
64
-245
-62
-12
219
50
176
-46
37
-89
87
-72
245
-256
-92
-89
-27
-12
-247
122
38
91
34
-169
-31
-175
250
210
138
218
10
-55
228
203
189
191
-3
110
-111
-221
-235
233
-37
-245
233
126
-78
-50
-142
-69
-184
152
-234
106
239
-9
187
232
-55
69
194
211
-242
166
158
204
101
-101
58
247
-66
79
223
153
90
200
23
-244
-105
137
-57
-33
33
-35
-183
16
212
-251
-8
-99
74
-70
-145
88
-160
-242
36
198
-87
-162
188
103
173
156
0
8
100
-233
20
251
160
219
-38
-63
-72
35
209
-117
40
-55
40
-142
131
151
203
227
165
-17
168
-178
77
100
181
-5
0
-75
-254
-156
-52
22
-161
-148
-15
57
45
168
-164
-3
-204
132
198
92
246
73
-13
193
43
-104
-80
-44
-26
253
-200
-101
-8
56
81
-6
156
-227
-240
251
-120
0
51
181
-87
143
-78
-36
19
-136
-200
10
193
43
-53
-19
195
123
192
-86
119
249
69
-145
49
-106
105
-51
-78
121
-56
58
-135
251
-17
34
138
162
254
-98
-230
-202
167
220
97
-142
-56
37
237
-119
206
100
-127
19
211
178
169
60
-129
-165
-76
71
149
45
66
-123
-177
-52
-217
-179
105
-191
-125
17
-227
228
131
-27
9
111
110
-41
-45
239
234
-90
161
147
226
-223
238
-105
103
131
196
-87
-248
-237
117
-209
-160
-34
-144
-28
239
-116
-56
114
113
209
-31
-33
-88
181
-50
-110
-165
-144
-219
-195
-112
-237
-44
247
150
-104
-96
158
-85
-235
204
11
-12
-196
239
-29
-56
-73
-171
-199
-120
54
24
49
-21
230
195
70
-170
232
131
-26
251
-169
-34
145
-17
126
46
154
147
-5
-91
-121
54
-108
106
254
75
191
-200
212
-11
80
4
224
54
-57
38
141
-81
-87
-141
-86
-1
80
-197
238
-50
105
135
-158
-156
-211
-23
154
-63
-173
152
-244
-237
208
224
8
32
-28
-24
-169
171
-242
227
-166
-73
-170
5
182
166
63
164
-140
-88
43
-42
12
88
191
-90
-232
-238
-193
-220
-219
-241
-252
45
47
-24
-235
134
-109
-221
105
-18
-38
191
242
-112
101
50
-205
217
218
95
-81
-26
-74
-146
141
-49
-128
203
-13
-91
218
-9
211
9
224
232
-113
-141
-245
248
97
-27
182
83
117
27
-123
168
-12
-161
7
163
69
189
-239
-46
-117
-110
-99
126
55
-137
-138
10
128
-171
-14
-241
-56
-3
-249
-215
226
189
124
86
-40
-255
-2
205
-160
-251
112
166
194
129
-136
-179
-237
21
203
74
140
-191
-172
12
-106
70
27
95
-190
34
136
-220
-33
4
122
183
5
-135
132
102
-131
-12
12
-193
-139
131
-116
-120
-104
-168
210
-220
-103
-218
49
47
108
-180
-114
174
110
-234
210
-179
26
77
-252
-224
197
136
133
-189
-133
-111
-126
-16
-235
14
120
-83
102
75
-47
255
113
-254
46
-35
-178
188
-117
187
210
-162
-248
-20
170
-244
11
112
148
-111
179
-240
34
-203
0
54
67
-136
227
-88
195
-76
-89
52
-74
213
-240
3
145
-100
-65
99
-7
-57
-177
-93
-45
90
-237
-153
235
198
-137
13
250
119
-189
61
239
-218
229
178
-37
-116
-26
145
-159
-10
-108
242
146
83
85
-117
-230
163
46
-19
-3
65
85
-24
7
204
245
1
67
-200
-194
50
-161
-221
-28
57
-81
202
-54
16
-64
94
3
-174
-79
-169
-35
-53
251
-245
184
-8
76
13
225
-173
-40
214
84
-229
-242
146
77
-148
181
-206
166
-155
252
-144
117
-68
206
-136
14
-130
-49
234
73
-54
245
1
194
65
-242
163
149
-26
120
-23
2
134
-133
-177
242
-208
-127
152
-107
-131
-249
-246
56
213
-126
-186
-173
81
-207
157
-230
-218
-98
220
103
-84
127
-4
146
-9
229
-109
-131
-160
-30
-145
-112
99
-249
37
224
-242
47
24
227
176
94
-202
1
143
211
27
181
-143
-9
28
28
-138
-232
-82
109
253
65
234
-164
-220
-167
-20
135
-160
-239
103
-146
63
-129
-175
-17
221
-120
240
108
-165
11
33
-53
-253
-195
232
-135
-171
-106
231
-175
215
209
-83
251
-214
153
130
-118
170
-24
-8
-23
103
73
217
68
209
201
-80
-213
-44
209
-9
-41
-242
-34
80
-157
116
55
-76
75
8
97
70
50
-5
-56
187
-91
176
-77
142
23
252
102
-165
205
47
10
249
-253
-37
-17
-38
-23
206
-214
75
66
97
255
-115
-151
97
211
154
-165
-101
86
0
-181
-247
-114
98
-250
244
188
211
35
-57
204
38
162
-69
-255
-117
-119
-213
214
203
140
213
-168
245
54
-213
144
145
-58
-26
-111
16
-17
31
-142
-11
19
-210
-56
-202
-11
-109
93
-106
78
93
33
215
136
-9
161
20
-52
249
9
-255
-220
-103
146
-23
127
-220
250
-147
67
-148
98
-170
-102
-214
-116
143
-67
233
-219
-244
70
70
227
-50
-195
132
227
8
125
-20
10
161
133
-100
-118
4
-64
-124
113
-254
-16
-45
-168
138
-3
-28
24
187
-51
61
198
-237
-125
169
-31
-65
45
-60
200
-86
176
-46
-181
53
110
-43
-199
-210
89
170
-208
-183
-131
-120
210
122
108
-22
53
-199
-217
-5
-180
-86
-92
45
106
209
241
49
-133
161
-253
-58
-42
113
154
15
159
-13
-72
207
60
53
-169
14
-81
196
248
228
253
-224
-32
-183
-54
132
119
-204
85
104
101
208
9
104
-106
223
-39
-208
-18
-136
35
166
-186
-161
-37
-99
109
139
-159
102
111
-162
134
-177
-89
-176
210
-227
-125
39
133
233
-9
-114
81
141
-147
-214
189
90
-94
-32
0
-24
63
219
133
-83
102
230
-238
-43
-188
152
35
-21
232
-10
9
-149
-227
-114
-173
20
28
164
-95
137
206
-162
-29
-144
62
227
88
-131
191
-35
41
36
-61
60
249
8
-44
29
243
-69
-238
-4
38
-209
138
122
68
-90
30
228
-210
-20
-190
17
92
128
-11
-77
252
-77
144
38
216
-172
-158
209
92
53
-18
79
241
0
-182
23
47
212
-111
-141
-134
175
-169
-88
-101
-103
185
247
-231
-82
-85
-235
97
-197
59
57
-113
157
10
235
-46
247
57
-61
-9
132
218
-218
88
-148
-103
209
-229
-16
-135
-74
138
-206
-82
162
-32
88
184
-191
147
-13
121
-222
-112
-125
-243
98
-134
70
-219
113
-54
256
152
-222
-149
-207
243
-122
33
-148
61
-85
-97
234
-179
127
66
-251
192
-43
-8
57
-9
136
188
4
-22
-202
-182
15
168
20
15
63
53
123
112
40
-255
-111
149
62
60
-205
40
137
178
-150
142
114
63
-122
-85
-201
-242
-153
59
-8
-98
132
-249
-187
-104
22
133
205
-111
-11
-11
-110
134
-118
207
-62
-67
-9
-180
-145
97
218
225
-95
-159
-116
-40
-145
-13
-238
103
145
151
110
214
-209
-124
91
252
21
-176
-15
167
214
123
118
-103
-200
-147
-27
-89
207
-65
-120
-144
32
20
71
142
-249
89
-11
152
-16
-157
111
30
-25
-54
26
252
26
-245
163
-16
134
25
137
190
134
-146
-155
85
45
-19
197
-179
-255
12
219
-248
-155
-48
160
85
51
15
-141
-230
217
141
-233
-14
152
185
227
30
-46
108
-36
-167
218
64
174
7
-211
115
84
-210
-130
47
-202
-29
255
214
-200
51
-27
-85
77
-67
-200
100
176
209
29
146
-17
240
-2
202
-184
-40
11
246
223
56
105
51
102
231
-158
155
-54
-159
113
2
148
-170
173
-31
19
230
-188
-62
182
97
-171
-91
81
83
-144
153
-213
122
143
-245
-78
-8
61
-232
-33
159
179
170
-256
36
-84
148
122
-167
-140
-115
-193
-71
79
246
-230
164
-101
107
-9
10
5
35
-123
-108
45
55
140
-149
79
-149
-246
2
-235
-246
-217
-63
158
161
26
-237
-210
89
-53
125
79
-26
33
234
-175
-231
-12
86
60
121
234
-151
-80
118
-44
255
225
-34
1
246
-24
40
-73
-122
-55
209
-103
-9
43
100
-140
-135
-182
150
-157
-101
174
87
241
-22
-49
218
83
127
80
-218
126
50
4
-129
40
237
167
224
-141
-144
177
12
103
-36
-144
219
85
-70
113
184
85
31
15
70
-247
222
33
92
93
-143
130
-37
163
-122
90
-53
-141
1
-86
-26
113
-165
242
-40
55
-158
-76
-116
28
-220
-188
-143
67
83
183
76
49
-40
-88
-113
73
-214
106
-21
-80
-60
182
35
197
-160
-247
55
-68
250
-241
243
-164
-61
-129
120
-25
-61
233
-213
-234
160
119
71
-136
-226
214
192
-184
64
-85
-8
-252
-158
-229
202
-62
-221
1
126
-226
16
112
-135
211
239
241
-70
-78
217
-28
-56
121
-165
-241
241
-135
229
177
-63
38
-163
185
42
-66
212
-12
128
247
244
-2
-236
4
-146
-114
-41
-163
-129
145
15
-168
-139
215
209
-48
230
194
74
203
116
-245
-15
208
196
-229
-113
151
14
-241
142
3
13
163
-249
123
-208
-35
216
-81
-146
-25
7
-28
-66
-40
180
-92
-101
-3
-145
-242
8
96
223
-52
122
-147
-157
-119
-132
241
139
137
148
146
4
196
-145
-36
-141
-34
194
122
193
-128
-173
117
36
-18
-141
147
-4
123
-14
-37
-185
-147
72
-86
-10
196
-101
-127
77
-209
-237
-176
243
-126
44
-153
96
-18
225
33
111
-204
-106
-110
33
9
-219
-227
-124
24
-8
-54
133
-192
116
-134
-252
-241
-5
81
-194
14
162
-207
144
-51
-105
-15
188
-136
-238
42
-84
-88
189
206
177
226
235
-203
-7
-29
0
-130
36
-140
-8
40
-126
243
-135
-64
1
-229
-15
-110
-23
137
130
-92
-255
148
207
-83
-195
140
-133
238
109
-154
-221
-153
73
35
-27
-147
151
221
149
-231
208
-241
-39
-46
-214
203
100
18
83
-26
183
84
-134
133
-254
-73
17
-131
-91
-129
-30
-55
-27
-212
236
202
-103
130
168
-210
156
120
-196
-139
-182
-154
-192
174
120
147
-108
47
-25
14
-76
-23
197
197
102
-149
-188
-184
51
41
-140
31
-12
12
-94
-101
58
-195
-236
118
-78
-163
220
-14
-245
84
-123
-97
-125
108
173
56
-170
115
-3
187
221
65
-253
17
-150
-137
-208
94
131
-46
249
-67
15
-243
-205
194
-150
-240
-76
-139
100
57
20
231
-91
-62
31
-5
-204
-228
-74
-238
92
-71
34
198
48
82
36
-77
-220
29
112
52
42
164
-11
148
179
169
-246
23
-30
30
-1
135
224
-226
-126
-236
-199
56
-219
150
241
72
92
33
-102
-127
212
-65
158
68
242
-56
-25
-24
-164
-101
-111
-154
178
114
132
-80
-7
99
-50
123
119
7
-77
156
-99
-93
-28
249
196
126
-134
152
-195
-232
-36
-209
-32
195
23
60
-162
167
162
-241
26
38
-64
-237
-119
142
142
256
-107
-191
156
50
-27
-127
44
-87
255
166
-192
-196
190
28
-148
-99
-33
130
218
61
42
124
76
-188
-95
-244
-169
42
153
229
42
-210
-218
-58
96
11
71
-116
180
70
-206
244
130
239
16
237
-115
239
112
-154
44
-102
226
-137
-35
-125
-125
52
173
-228
26
-41
-182
64
157
171
-181
-28
-201
255
-214
-151
243
172
-168
3
153
-27
-14
9
75
-227
163
45
-107
-128
176
24
181
93
52
-50
-204
126
-242
209
41
-167
-75
96
-168
-33
201
-181
-117
-223
77
-220
5
-193
45
-176
-163
-48
125
-15
80
45
-247
5
-118
61
211
-66
-69
225
-113
229
-197
68
69
-109
-221
14
-35
-82
47
-213
-46
-204
-150
255
-123
-57
-49
-254
184
-225
47
193
36
185
-2
-9
-138
186
-40
5
158
19
-183
-29
165
-148
241
-125
26
32
-83
236
84
23
234
217
222
-71
219
150
-40
9
87
252
-62
-171
-14
56
-241
202
-195
173
-35
-121
-112
-125
-13
-126
5
-243
162
179
248
-10
-54
227
-49
-88
-100
-86
-194
116
179
149
111
-139
235
-158
173
250
-212
234
167
9
-143
-201
140
100
-71
-111
113
-165
-189
105
81
13
76
-224
182
231
-55
244
91
-132
137
-54
-15
116
44
-98
110
88
-120
21
-159
-7
76
236
-163
-251
-131
205
-160
-63
54
176
206
-126
208
132
-151
-103
119
196
21
0
-114
-250
-140
186
-92
226
18
43
-10
114
-220
-190
95
-127
-185
220
-178
-89
-99
132
-169
-149
-250
-217
238
-145
-63
102
-205
214
-154
-63
220
-38
-133
-129
-68
141
171
178
-1
207
245
-162
-177
-196
-198
-99
-29
-41
-223
58
65
-218
97
48
-107
-222
-106
-56
248
-4
137
212
214
-252
-173
-110
144
254
-188
-113
204
-199
-19
-229
-139
39
-72
88
253
-39
-110
63
-1
243
-145
148
-235
4
-164
-243
256
229
224
214
232
-205
-152
121
-207
-84
-248
253
-26
-11
-231
91
-228
-47
-77
-231
170
69
88
-87
56
199
-195
77
-53
-103
90
-53
-130
58
-95
-154
110
9
223
159
181
231
156
-101
-36
180
246
-8
-123
-88
18
-209
237
-150
-40
37
-207
22
-142
-4
175
204
199
-212
6
-152
-109
-141
113
-142
-238
39
-168
174
194
52
98
183
-211
232
-160
62
-233
-179
168
-17
114
217
-251
228
-43
180
175
-100
224
-75
5
-141
41
-138
-28
59
157
61
-23
94
-143
-181
22
-98
-205
117
220
-182
194
132
57
52
92
62
24
-207
-14
-57
-51
-46
124
210
69
-91
-184
-215
224
228
102
-56
67
215
19
-168
-139
70
206
-175
143
144
212
-55
-60
49
-249
220
98
-7
-94
-209
203
-225
-255
16
-60
-183
57
-93
-211
-97
107
112
-138
-130
200
-21
196
150
60
83
38
16
-228
233
-191
-221
197
163
28
-153
210
-25
-122
211
247
74
-228
48
237
-183
207
88
185
-187
215
129
48
155
22
-148
-18
-196
124
10
-219
189
45
234
96
-184
-174
50
47
-40
5
38
-222
34
-171
-242
107
-220
103
35
-151
61
-92
154
-40
187
-250
198
247
131
-48
-228
64
253
-250
-96
-186
-168
211
117
48
-40
-101
81
249
-16
96
100
20
-58
-120
126
-252
44
23
-36
-26
30
-94
-35
-96
115
-7
224
112
-1
-128
182
87
-173
43
-121
43
198
216
36
-74
56
-120
202
254
16
71
-254
-196
-161
-35
34
124
128
255
-228
-14
-8
253
-158
247
-131
-232
78
-48
67
213
250
9
172
31
191
-28
167
136
-30
-73
-48
-28
-13
46
193
-235
-85
65
-235
-57
-205
13
-60
-107
4
65
-82
-174
-240
241
-217
-246
-6
211
41
-71
-73
-48
-191
153
135
17
-132
-134
-193
-195
-113
-22
126
-92
177
177
177
-139
-186
-75
182
-12
7
198
-26
46
208
224
1
-7
-103
184
201
-38
81
80
235
205
202
-214
-245
-166
20
137
-3
-58
58
-82
59
128
99
-15
-139
-150
-74
90
151
-121
58
-104
128
211
-176
73
-83
161
-102
-103
110
-156
-61
120
-66
215
1
187
-99
-197
-151
216
187
204
-55
-209
-202
127
138
205
-250
-60
-154
134
-105
-75
-49
69
-170
105
221
195
205
-96
60
-117
-137
-195
-186
21
-137
-80
-19
-206
-132
181
-158
-78
52
235
-129
58
-81
-27
-64
70
154
143
-117
240
-7
-152
179
-58
8
-17
81
127
44
152
-108
163
-185
129
213
-61
54
-201
117
-150
-222
244
165
-47
-40
-155
-233
-142
244
-94
-158
-19
10
-234
179
-238
5
4
146
-208
-101
-218
211
-30
166
168
165
-36
223
26
71
-255
13
-21
-46
230
80
-23
-168
68
140
-70
-208
-106
-48
227
-88
212
-25
-198
-251
130
-160
216
-155
-250
128
-246
-30
95
36
-215
96
-207
20
-206
-233
-156
28
-145
167
-89
42
216
61
250
187
229
206
-94
-225
211
-220
-129
171
-119
-123
43
-109
103
-117
183
144
235
232
-92
-227
256
7
57
-145
-81
225
153
-122
30
146
-191
3
96
-29
35
51
7
162
-34
144
-217
-247
-221
142
-108
218
30
-129
194
194
-100
194
-55
213
-207
119
182
201
253
-44
92
-194
215
-68
33
-6
239
-216
-101
-51
183
-62
-42
218
-176
106
180
109
232
118
47
-123
56
248
-166
104
111
-240
50
109
-28
-115
171
-69
73
-52
181
56
-13
-176
-251
-85
18
-37
-123
98
-187
-199
-49
-211
175
254
-79
-25
246
11
-177
101
27
129
-47
255
-242
-132
-70
88
72
-145
-112
-197
-65
-107
-26
209
112
107
50
181
164
-255
226
83
255
-109
-199
245
158
-119
89
-70
-246
-214
-71
-232
-90
115
112
238
226
256
-215
-95
-108
15
-142
-252
-134
165
185
-226
166
155
112
165
-210
169
154
204
-206
-13
-122
-196
29
63
-172
196
-78
195
178
-107
195
219
54
-169
-22
168
-164
100
77
-235
129
-14
175
-15
-104
221
-101
-207
169
-51
37
-209
9
-190
110
93
-250
-224
32
183
-75
-29
146
235
59
-132
147
150
224
-33
171
97
210
90
-173
-151
55
-18
-101
-32
187
191
15
-60
-255
-131
-224
-249
-98
64
191
82
-220
81
61
94
205
-48
-11
173
175
-96
14
129
250
97
234
50
-177
-123
-238
-247
-188
33
-51
-187
159
-19
-179
-196
-210
-245
143
-175
92
-52
176
41
156
-92
-42
75
68
228
-52
62
69
-73
-144
147
60
-126
156
128
163
-151
197
66
87
-238
126
133
-227
13
214
121
217
134
-95
117
-214
119
-63
110
91
141
-84
-97
-188
28
-206
127
158
207
-1
66
-200
-60
-124
143
-42
-254
20
-13
15
-22
-149
-23
-145
13
-162
-103
-124
30
-249
223
-85
-76
-130
-17
208
-79
-146
110
-128
109
-80
-72
-207
52
-185
7
54
91
250
-186
-187
-154
46
-76
114
140
77
247
-86
85
213
85
-248
-172
-188
216
5
-78
70
132
-225
246
-196
-175
42
-124
88
-160
223
82
-91
-221
184
211
-40
42
95
-219
33
-247
122
-10
94
130
74
162
90
-178
-171
-96
211
-140
-106
-241
-59
192
-109
-227
-224
-143
111
-59
-107
39
-104
109
-175
247
146
113
-256
11
-153
95
-114
177
1
232
256
86
-119
210
202
31
225
-114
-33
-140
-85
-1
-26
-230
196
122
65
-164
-25
146
-173
-135
3
-173
132
107
178
-238
28
-77
250
28
-247
-126
-18
210
161
-49
-159
-128
67
12
127
-215
38
67
163
-153
158
-118
249
242
3
-4
-187
-121
-154
247
-103
130
-86
-110
-98
-78
21
139
-123
-74
-166
-27
55
157
241
-75
198
23
248
105
125
151
243
118
136
-11
-142
205
124
-40
196
-235
-166
-146
-89
-8
32
188
-125
165
-142
-34
-118
169
-133
-134
-162
-191
145
-170
170
15
237
157
-123
117
-110
-10
66
-242
206
6
-221
-216
116
-54
32
-108
-121
163
-199
-7
-127
-61
-94
-4
61
0
61
-50
87
-25
221
68
-125
-158
-71
22
88
251
36
38
1
71
78
-139
-238
-145
9
-104
-238
66
145
-109
-251
-205
143
66
51
-52
-239
-119
179
238
205
-202
-177
-122
76
167
-128
-144
-51
130
183
-229
247
200
-118
0
-159
-100
-190
242
47
-184
-220
-66
138
87
139
155
225
61
136
174
116
215
-205
-65
126
-76
47
-181
-203
-26
-154
-212
-82
-16
44
15
141
111
0
-68
182
37
122
64
-132
5
-37
-163
-190
-157
-245
182
-198
-194
-139
184
-14
164
-253
39
-118
-151
83
56
90
-129
-185
-26
238
72
162
164
-148
28
-28
-24
-223
191
69
-157
-222
80
-231
-164
142
-114
-236
-129
-206
-233
166
-68
-128
-6
244
218
121
-196
-64
103
131
-158
11
240
126
239
-40
159
174
-227
-254
208
109
-229
-213
-5
-87
-193
122
-37
-170
33
151
-42
-230
140
-81
147
199
111
-6
74
209
-252
58
79
243
-238
-18
161
-209
-16
113
156
11
156
-105
180
219
-238
-112
-207
50
-217
7
76
179
182
-33
122
37
217
-60
-10
221
254
-187
209
-240
52
114
-192
-220
-29
220
47
-129
-141
-28
-165
-123
116
-116
183
154
146
3
77
72
227
-57
-146
188
139
100
153
138
169
106
154
-35
-36
217
1
191
181
-208
-193
-215
20
-103
-83
-120
37
-156
-222
-73
104
111
256
75
-202
-147
7
193
209
-96
75
122
-246
-27
-169
-25
-66
88
-90
-141
136
-27
-100
-100
126
73
36
-93
174
70
90
21
-74
90
-160
-20
199
103
-83
152
-249
248
18
-238
-35
105
-8
155
-63
158
-242
-183
-125
-86
-26
-255
243
-246
-93
161
80
253
-74
-250
87
23
-14
30
-130
159
-74
-123
151
201
-106
-140
50
142
-241
243
45
-227
-195
175
-56
35
176
-69
45
-173
-164
-131
-175
18
-125
168
-215
117
-58
-90
20
125
43
-85
69
193
32
-136
80
47
-149
-132
76
-88
-212
-236
203
220
-49
-9
-209
43
116
-128
-195
247
-216
-154
108
-18
12
-128
-150
-201
44
176
249
-181
-217
73
122
-110
197
-57
58
241
-37
5
205
170
252
252
-44
112
-132
17
103
-93
119
-44
145
-125
84
251
-69
-129
171
-76
-53
210
253
-187
-155
194
12
159
179
231
-92
128
144
-96
124
-155
-240
247
118
119
-101
-19
-181
-212
112
159
-217
-213
-226
210
-33
-23
164
-37
46
-247
-99
-198
167
-176
-223
-181
208
177
-21
76
-235
-5
68
139
-142
222
-136
-67
-246
232
-164
-207
-237
-134
-254
-14
100
167
206
-110
175
-149
-52
87
-69
-20
162
-116
-99
-116
216
-78
135
27
-195
249
-6
-74
-74
3
-98
18
52
-79
141
54
164
-16
-35
113
130
-116
220
-178
227
-105
58
132
35
215
-240
-6
-119
151
-234
-57
144
15
124
-186
-238
-230
89
70
-52
-26
-131
-145
214
89
224
88
229
188
166
200
-173
-32
76
118
-73
92
-144
65
-12
-122
-249
-124
149
132
-54
167
158
-221
-19
-150
9
106
-39
-33
-61
-70
-201
-87
-138
221
-143
-55
-66
189
-193
117
25
-81
-75
-243
53
-67
-111
-54
-191
91
-143
223
126
94
-183
-121
-56
35
102
139
221
158
-204
-173
123
-91
28
-200
-158
91
173
123
-245
-158
136
64
31
-231
-247
96
116
-134
63
-14
216
136
121
-96
-85
-32
-213
-120
-131
-161
-38
248
4
246
-207
102
82
222
-31
92
-192
-151
-100
96
-126
-91
-64
245
31
255
-24
-9
135
-159
151
-206
65
195
-70
190
-222
149
183
38
139
231
-116
-35
197
109
-199
-250
214
-43
101
-169
122
-219
-179
-103
-220
52
144
171
149
39
221
-42
-22
-105
-107
12
-212
-181
-206
183
-206
-66
-109
248
-213
-52
253
-255
161
98
-168
27
135
-92
179
170
217
67
85
110
-150
50
-188
84
201
-39
-160
245
36
-110
172
86
80
-193
78
123
12
75
123
-83
-83
211
199
-204
-136
123
222
-176
-66
51
190
41
-154
-253
-131
-209
-36
-36
-220
255
110
208
86
-66
-241
-92
-200
26
238
180
199
-101
135
142
-49
254
9
-82
-177
199
225
-243
-16
-185
-240
109
-138
-21
-183
-103
-21
183
-151
-191
-139
-136
-28
-83
146
-45
-159
89
110
231
-25
-195
230
240
-21
-204
184
-52
-190
-88
18
-175
-236
136
61
-163
-223
-216
-236
-118
-152
-119
2
76
54
-109
-225
151
236
141
127
-45
202
100
-60
-76
153
-133
128
219
35
-109
-212
56
-230
105
149
-196
144
170
-58
249
-205
199
69
105
-165
100
1
-185
-15
-129
26
-69
228
222
111
125
-167
-17
87
124
130
131
-76
156
-20
-183
216
-132
243
-99
-139
-218
-155
186
143
-65
30
-112
6
-241
15
-224
-55
-13
253
-199
-145
-170
40
198
211
-86
73
-121
-186
-203
-48
-226
-79
-61
-69
38
-23
32
-32
-136
223
254
8
-27
-243
-233
5
-42
9
2
14
121
89
-202
63
43
-32
-119
178
38
-66
-126
68
111
69
255
-107
-210
31
117
-90
-1
115
174
228
128
197
-23
-170
-50
235
100
-185
68
154
134
-145
-134
-241
-223
160
-52
-92
-28
-196
233
-29
-47
-233
-254
-186
-67
1
186
-149
-27
57
-208
206
143
-2
185
-13
69
-3
-115
-53
108
7
-39
142
-89
166
-207
139
225
-230
-146
-78
-207
-143
-7
-18
114
-78
88
-170
236
136
-220
123
-122
221
-146
203
-38
-5
-106
-186
-254
111
212
-87
21
-251
-204
-10
-225
-94
169
-176
19
-95
61
-123
84
-106
-37
64
-226
-1
-70
-92
-36
40
-145
182
-222
4
252
-220
-140
208
-51
137
213
1
-129
244
163
-216
-188
-74
-55
129
59
-227
-233
-234
93
-203
21
-233
-40
241
63
71
167
97
-181
162
133
-65
114
-174
-184
71
83
-57
59
-10
-17
126
173
184
-1
-24
213
22
-2
50
75
-237
73
-221
-252
-121
106
170
232
181
77
109
-140
-65
190
-68
-250
17
130
64
-249
-143
-65
179
-215
190
-101
254
-44
153
48
-225
172
-136
-190
175
-1
172
90
-25
97
-90
-172
213
101
-238
-111
107
35
-237
-85
42
-124
106
-35
-83
40
120
-86
253
17
218
-228
-68
-174
-162
-148
82
-246
197
-199
107
-149
-115
65
209
-97
209
59
194
228
230
-20
-152
80
201
21
-135
65
191
-139
-174
153
-111
14
235
-17
121
61
-7
63
118
-155
170
-253
165
123
-94
119
-74
-156
91
-100
80
195
237
25
-40
-155
-166
-105
-37
-85
-208
108
185
-229
-165
51
88
84
-143
-50
185
-229
-46
94
150
116
-43
-180
216
-208
-24
40
243
-43
-191
-53
58
-102
97
-236
70
145
128
-1
172
219
-207
4
47
-94
211
-24
-67
-92
-185
-173
-232
28
-97
240
76
134
24
63
-165
89
-247
149
243
106
169
56
-5
42
-201
-89
4
-152
172
-204
10
127
28
200
-221
99
-229
-197
-130
-71
-213
202
-192
67
9
-101
-101
18
-208
-114
-132
217
199
120
3
254
-225
-249
-154
203
-197
112
73
87
56
108
-70
83
167
56
-244
210
2
-181
21
-245
-26
176
29
22
-194
153
-17
-251
17
242
-253
48
250
-152
-5
-203
217
-188
140
16
177
-186
-157
88
126
-145
42
-128
-70
-194
-116
160
238
169
-74
-211
66
166
-206
-173
152
-204
131
145
-99
-130
198
-138
-62
82
134
-141
151
233
203
21
-168
-12
150
18
50
-223
-78
33
202
104
78
12
14
127
95
-90
180
-30
-201
-175
96
253
-58
-221
79
-180
-106
-26
-202
-160
252
-115
84
146
159
-121
179
-175
168
125
186
-11
-119
-56
-139
232
109
-215
-54
164
-135
-213
161
64
-179
-16
140
-29
214
194
67
210
-177
-105
100
238
30
23
-192
-59
-108
249
187
29
-63
-208
5
-210
-168
208
210
-46
250
115
-238
-184
-157
158
42
-198
96
-147
-244
175
4
112
157
-222
-121
221
-25
27
215
-94
-200
-104
-46
61
-58
42
13
-104
252
8
-245
-243
79
-145
171
-134
-87
11
-25
-75
-70
235
-219
-169
-243
-84
-203
-12
198
-245
151
254
-93
-152
60
104
146
-183
-256
142
80
-245
155
-96
-134
70
25
35
-175
-256
216
11
235
253
99
248
-88
151
-20
-145
162
-125
-147
-187
-21
169
173
-130
242
173
-244
66
185
167
226
-205
-19
-5
86
62
-5
46
-183
-26
42
172
-33
211
67
203
-191
-27
-178
-82
42
57
-169
-41
183
-183
-124
195
139
-195
105
109
-144
-170
-152
198
149
100
-12
222
-182
-225
138
41
241
-52
-12
-205
178
66
-31
-36
-133
56
179
-206
129
-201
245
13
-140
94
-134
-27
181
-30
-85
73
-186
159
39
-112
190
-79
185
175
125
-84
226
47
238
-61
-246
-151
251
189
-101
124
244
-112
-119
-152
239
3
77
163
229
248
-20
-213
151
-236
-69
84
-60
-140
3
-191
32
-27
112
14
167
122
119
162
55
-237
31
43
-93
168
148
-110
-85
-31
-203
-113
-40
33
-70
-145
53
117
195
249
232
-58
-198
8
171
170
-234
82
37
142
-12
-164
161
-237
136
-188
186
27
-43
-155
252
10
-12
-44
-212
174
67
97
35
6
90
12
204
148
-236
119
63
-214
-55
-157
184
189
-64
89
208
-185
156
138
99
-142
239
95
124
-29
-205
167
-110
118
8
181
-131
-158
-63
-183
246
-43
192
53
-1
-119
152
-72
-186
-168
-240
-235
-97
173
159
-255
-226
142
96
154
-142
147
65
4
9
-183
-71
134
-85
122
207
-95
-177
143
214
78
-233
110
-250
-163
198
-234
-142
-155
194
-239
-154
225
159
198
122
-239
89
-68
21
-158
5
206
232
176
71
183
-174
150
69
-217
-27
92
149
-22
185
91
0
-213
191
-61
-196
-218
-93
219
236
-226
236
69
-39
1
167
223
-49
143
143
-234
69
225
172
-118
-248
-111
231
157
123
160
-8
-133
203
-72
62
-249
-35
225
226
-55
254
207
-243
-40
-48
180
-74
158
67
-186
181
-120
-218
97
18
-210
242
-7
204
109
-103
-60
232
-156
123
38
-149
-167
7
-179
33
6
-229
47
221
-21
-29
-108
-118
-218
-38
-194
-82
0
159
192
46
145
-71
-6
-2
82
190
-25
182
57
-243
-223
146
20
-147
-77
-230
-119
226
247
116
-60
-117
253
-22
101
-197
152
-155
218
88
147
108
-238
-115
-150
100
-182
81
26
131
94
59
21
-142
168
200
-116
-207
169
-125
165
-146
15
162
88
-140
222
-16
-40
184
-184
-149
36
-166
-8
141
191
66
-34
-39
-59
-196
-236
218
-82
188
162
58
237
76
189
146
185
-52
52
17
64
18
-255
-232
-54
-183
-125
237
-92
123
123
-158
-67
-167
59
130
-107
79
93
67
11
-1
-132
-8
-181
-198
-118
-252
6
190
21
-187
-48
22
-163
153
96
-32
135
-253
-165
2
-154
24
91
161
-102
239
-16
247
50
252
-10
174
-12
64
232
126
68
-18
60
-167
51
-244
111
144
165
-49
-144
44
-46
-53
-211
56
227
136
-39
-131
119
201
-141
-87
197
105
-169
-72
-87
-193
-202
237
45
114
-186
-161
126
181
239
35
-125
-161
-177
85
42
-132
-115
13
-252
101
137
123
46
252
-220
-13
101
-133
171
-242
-70
226
251
231
84
-191
-186
-46
245
-202
245
-135
-107
-188
206
191
-64
-165
-53
-60
192
-172
-193
-17
-175
-157
225
182
-34
141
196
153
111
191
128
-61
255
199
149
244
252
137
-147
-111
205
-197
-176
-115
-106
27
81
-170
112
144
68
193
243
38
118
-47
-77
58
-150
-223
-7
234
-28
-8
177
-136
-20
173
-254
90
-194
207
149
-114
-164
-214
169
173
-128
25
60
197
-39
47
-22
-176
-256
157
138
-149
190
-125
-171
-94
123
-250
27
-153
179
29
193
241
